{"gradients/actor.latent_pi.0.weight":{"bins":[-3.706019878387451,-3.584336280822754,-3.4626529216766357,-3.3409693241119385,-3.2192859649658203,-3.097602367401123,-2.975919008255005,-2.8542354106903076,-2.7325520515441895,-2.610868453979492,-2.489184856414795,-2.3675014972686768,-2.2458178997039795,-2.1241345405578613,-2.002450942993164,-1.8807674646377563,-1.7590839862823486,-1.637400507926941,-1.5157170295715332,-1.3940335512161255,-1.2723500728607178,-1.1506664752960205,-1.0289829969406128,-0.9072995185852051,-0.7856160402297974,-0.6639325618743896,-0.5422490835189819,-0.42056554555892944,-0.29888206720352173,-0.17719857394695282,-0.05551508069038391,0.066168412566185,0.1878519058227539,0.3095353841781616,0.4312188923358917,0.5529024004936218,0.6745858788490295,0.7962693572044373,0.9179528951644897,1.0396363735198975,1.1613198518753052,1.283003330230713,1.4046868085861206,1.5263702869415283,1.6480538845062256,1.7697373628616333,1.891420841217041,2.013104200363159,2.1347877979278564,2.2564713954925537,2.378154754638672,2.499838352203369,2.6215217113494873,2.7432053089141846,2.8648886680603027,2.986572265625,3.1082558631896973,3.2299392223358154,3.3516228199005127,3.473306179046631,3.594989776611328,3.7166731357574463,3.8383567333221436,3.9600400924682617,4.081723690032959],"_type":"histogram","values":[1,0,0,0,1,0,0,0,0,0,1,1,0,1,4,0,0,2,8,5,5,6,10,16,32,54,76,148,337,1078,24160,862,262,128,71,39,40,9,8,6,4,4,1,4,0,1,0,4,0,1,0,0,1,0,0,0,0,0,0,0,0,0,0,1]},"train/learning_rate":0.0003,"rollout/ep_rew_mean":15822.581,"gradients/actor.mu.bias":{"bins":[-0.536812961101532,-0.523542046546936,-0.5102710723876953,-0.497000128030777,-0.48372921347618103,-0.4704582691192627,-0.45718732476234436,-0.443916380405426,-0.4306454360485077,-0.41737449169158936,-0.4041035771369934,-0.3908326327800751,-0.37756168842315674,-0.3642907440662384,-0.35101979970932007,-0.33774885535240173,-0.3244779109954834,-0.31120699644088745,-0.2979360520839691,-0.2846651077270508,-0.27139416337013245,-0.2581232190132141,-0.24485228955745697,-0.23158134520053864,-0.2183104157447815,-0.20503947138786316,-0.19176852703094482,-0.1784975826740265,-0.16522665321826935,-0.151955708861351,-0.13868476450443268,-0.12541383504867554,-0.1121428906917572,-0.09887195378541946,-0.08560100942850113,-0.07233007252216339,-0.059059131890535355,-0.04578819125890732,-0.03251725435256958,-0.019246313720941544,-0.005975373089313507,0.007295566610991955,0.020566506311297417,0.033837445080280304,0.04710838571190834,0.06037932634353638,0.07365026324987411,0.08692120760679245,0.10019214451313019,0.11346308141946793,0.12673401832580566,0.140004962682724,0.15327590703964233,0.16654683649539948,0.1798177808523178,0.19308872520923615,0.2063596546649933,0.21963059902191162,0.23290154337882996,0.2461724877357483,0.2594434320926666,0.2727143466472626,0.2859852910041809,0.29925623536109924,0.3125271797180176],"_type":"histogram","values":[1,0,0,0,0,0,0,0,0,0,0,0,0,0,0,0,0,0,0,1,0,0,0,0,0,0,0,1,0,0,0,0,0,0,1,1,0,0,0,0,0,0,0,0,0,1,0,0,0,1,0,0,0,0,0,0,0,0,0,0,0,0,0,1]},"gradients/critic.qf1.0.bias":{"bins":[-25.0717716217041,-24.655073165893555,-24.23837661743164,-23.821678161621094,-23.404979705810547,-22.988283157348633,-22.571584701538086,-22.154888153076172,-21.738189697265625,-21.321491241455078,-20.904794692993164,-20.488096237182617,-20.071399688720703,-19.654701232910156,-19.23800277709961,-18.821306228637695,-18.40460777282715,-17.9879093170166,-17.571212768554688,-17.15451431274414,-16.737815856933594,-16.32111930847168,-15.904420852661133,-15.487723350524902,-15.071025848388672,-14.654328346252441,-14.237630844116211,-13.820932388305664,-13.404234886169434,-12.987537384033203,-12.570838928222656,-12.154141426086426,-11.737442970275879,-11.320745468139648,-10.904047012329102,-10.487349510192871,-10.07065200805664,-9.65395450592041,-9.23725700378418,-8.820558547973633,-8.403861045837402,-7.987163543701172,-7.570465564727783,-7.1537675857543945,-6.737070083618164,-6.320372581481934,-5.903674602508545,-5.486976623535156,-5.070279121398926,-4.653581619262695,-4.236883640289307,-3.820185899734497,-3.4034881591796875,-2.986790418624878,-2.5700926780700684,-2.153394937515259,-1.7366971969604492,-1.3199994564056396,-0.9033017158508301,-0.4866039752960205,-0.06990623474121094,0.34679150581359863,0.7634892463684082,1.1801869869232178,1.5968847274780273],"_type":"histogram","values":[1,0,0,0,0,0,0,0,0,0,0,0,1,0,0,0,0,0,0,0,0,0,0,1,0,0,0,0,0,0,0,0,0,0,0,0,0,0,1,1,3,1,0,0,0,0,3,1,1,1,2,1,2,1,4,4,0,2,11,50,117,30,14,3]},"gradients/critic.qf0.8.bias":{"values":[1],"bins":[-0.4609375,-0.4609375],"_type":"histogram"},"gradients/critic.qf0.6.weight":{"values":[2,1,0,0,0,0,0,2,0,2,2,1,1,2,2,6,2,5,7,4,18,47,82,94,125,218,529,1197,1801,5575,53016,1824,459,210,108,68,31,22,9,7,9,10,8,7,4,1,6,3,0,1,1,1,0,0,1,1,0,0,0,0,0,2,0,2],"bins":[-8.689521789550781,-8.405879974365234,-8.122238159179688,-7.838595390319824,-7.554953575134277,-7.2713117599487305,-6.987669467926025,-6.70402717590332,-6.420385360717773,-6.136743545532227,-5.8531012535095215,-5.569458961486816,-5.2858171463012695,-5.002175331115723,-4.718533039093018,-4.4348907470703125,-4.151248931884766,-3.8676068782806396,-3.5839648246765137,-3.3003227710723877,-3.0166807174682617,-2.7330386638641357,-2.4493966102600098,-2.165754556655884,-1.8821125030517578,-1.5984704494476318,-1.3148283958435059,-1.0311863422393799,-0.7475442886352539,-0.46390223503112793,-0.18026018142700195,0.10338187217712402,0.3870229721069336,0.6706650257110596,0.9543070793151855,1.2379491329193115,1.5215911865234375,1.8052332401275635,2.0888752937316895,2.3725173473358154,2.6561594009399414,2.9398014545440674,3.2234435081481934,3.5070855617523193,3.7907276153564453,4.074369430541992,4.358011722564697,4.641654014587402,4.925295829772949,5.208937644958496,5.492579936981201,5.776222229003906,6.059864044189453,6.343505859375,6.627148151397705,6.91079044342041,7.194432258605957,7.478074073791504,7.761716365814209,8.045358657836914,8.329000473022461,8.612642288208008,8.896284103393555,9.179926872253418,9.463568687438965],"_type":"histogram"},"train/actor_loss":-1267.6697,"_runtime":20288,"gradients/critic.qf1.2.weight":{"bins":[-67.38252258300781,-66.23660278320312,-65.0906753540039,-63.94475555419922,-62.798831939697266,-61.65290832519531,-60.50698471069336,-59.361061096191406,-58.21514129638672,-57.069217681884766,-55.92329406738281,-54.77737045288086,-53.631446838378906,-52.48552322387695,-51.339603424072266,-50.19367980957031,-49.04775619506836,-47.901832580566406,-46.75590896606445,-45.609989166259766,-44.46406555175781,-43.31814193725586,-42.172218322753906,-41.02629470825195,-39.88037109375,-38.73445129394531,-37.58852767944336,-36.442604064941406,-35.29668045043945,-34.1507568359375,-33.00483703613281,-31.85891342163086,-30.712989807128906,-29.567066192626953,-28.421144485473633,-27.27522087097168,-26.12929916381836,-24.983375549316406,-23.837451934814453,-22.691530227661133,-21.54560661315918,-20.399682998657227,-19.253761291503906,-18.107837677001953,-16.9619140625,-15.81599235534668,-14.670068740844727,-13.52414608001709,-12.378223419189453,-11.232300758361816,-10.08637809753418,-8.940454483032227,-7.79453182220459,-6.648609161376953,-5.502686023712158,-4.356762886047363,-3.2108402252197266,-2.0649173259735107,-0.9189944267272949,0.2269284725189209,1.3728513717651367,2.5187742710113525,3.6646971702575684,4.810620307922363,5.95654296875],"_type":"histogram","values":[1,1,0,0,0,1,1,0,1,0,0,0,0,0,0,0,0,0,0,1,0,1,2,0,1,1,0,0,0,1,2,0,1,3,2,2,5,1,2,0,2,1,7,6,7,8,6,10,9,9,18,17,34,42,66,104,234,674,61707,2316,168,40,19,2]},"gradients/critic.qf0.4.weight":{"_type":"histogram","values":[1,0,0,0,0,0,0,0,0,0,2,0,1,0,1,1,1,5,6,0,0,2,1,3,0,2,4,7,7,4,8,10,24,14,23,15,44,62,101,197,442,712,2810,59665,942,229,83,35,23,13,13,3,7,2,2,3,1,1,1,1,0,1,0,1],"bins":[-37.21876907348633,-36.36176681518555,-35.50476837158203,-34.64776611328125,-33.790767669677734,-32.93376541137695,-32.07676315307617,-31.219764709472656,-30.362762451171875,-29.505762100219727,-28.648761749267578,-27.79176139831543,-26.93476104736328,-26.077760696411133,-25.22075843811035,-24.363758087158203,-23.506757736206055,-22.649757385253906,-21.792757034301758,-20.935754776000977,-20.078754425048828,-19.22175407409668,-18.36475372314453,-17.507753372192383,-16.650753021240234,-15.79375171661377,-14.936750411987305,-14.079750061035156,-13.222749710083008,-12.365748405456543,-11.508748054504395,-10.65174674987793,-9.794744491577148,-8.937744140625,-8.080742835998535,-7.223742485046387,-6.36674165725708,-5.509740829467773,-4.652740478515625,-3.7957396507263184,-2.9387388229370117,-2.081737995147705,-1.2247374057769775,-0.36773669719696045,0.48926401138305664,1.3462647199630737,2.203265428543091,3.0602660179138184,3.917266845703125,4.774267673492432,5.631268501281738,6.488268852233887,7.345269680023193,8.2022705078125,9.059270858764648,9.916272163391113,10.773272514343262,11.63027286529541,12.487274169921875,13.344274520874023,14.201274871826172,15.058276176452637,15.915276527404785,16.77227783203125,17.6292781829834]},"gradients/actor.latent_pi.2.weight":{"values":[1,0,0,0,0,0,1,0,1,0,1,0,0,0,0,1,0,0,0,2,1,1,1,2,0,0,4,4,5,9,11,7,14,26,35,78,152,480,2329,38695,21206,1847,357,104,47,26,20,17,14,5,11,4,3,5,2,3,0,1,0,1,0,0,0,2],"bins":[-1.3374844789505005,-1.3039931058883667,-1.2705016136169434,-1.2370102405548096,-1.2035187482833862,-1.1700273752212524,-1.136535882949829,-1.1030445098876953,-1.069553017616272,-1.0360616445541382,-1.0025701522827148,-0.969078779220581,-0.9355873465538025,-0.9020959138870239,-0.8686044812202454,-0.8351130485534668,-0.8016216158866882,-0.7681301832199097,-0.7346387505531311,-0.7011473178863525,-0.667655885219574,-0.6341644525527954,-0.6006730198860168,-0.5671815872192383,-0.5336902141571045,-0.5001987814903259,-0.466707319021225,-0.4332158863544464,-0.39972448348999023,-0.36623305082321167,-0.3327416181564331,-0.29925018548965454,-0.26575881242752075,-0.2322673797607422,-0.19877594709396362,-0.16528452932834625,-0.1317930966615677,-0.09830166399478912,-0.06481023877859116,-0.03131880983710289,0.002172619104385376,0.03566404804587364,0.06915547698736191,0.10264690220355988,0.13613833487033844,0.169629767537117,0.20312118530273438,0.23661261796951294,0.2701040506362915,0.30359548330307007,0.33708691596984863,0.3705783486366272,0.40406978130340576,0.43756118416786194,0.4710526168346405,0.5045440793037415,0.53803551197052,0.5715268850326538,0.6050183176994324,0.6385097503662109,0.6720011830329895,0.7054926156997681,0.7389840483665466,0.7724754810333252,0.8059669137001038],"_type":"histogram"},"gradients/critic.qf0.2.bias":{"bins":[-20.932619094848633,-20.56653594970703,-20.200454711914062,-19.83437156677246,-19.46828842163086,-19.102205276489258,-18.73612403869629,-18.370040893554688,-18.003957748413086,-17.637876510620117,-17.271793365478516,-16.905710220336914,-16.539627075195312,-16.173545837402344,-15.807462692260742,-15.44137954711914,-15.075297355651855,-14.70921516418457,-14.343132019042969,-13.977049827575684,-13.610966682434082,-13.244884490966797,-12.878801345825195,-12.51271915435791,-12.146636962890625,-11.780553817749023,-11.414471626281738,-11.048388481140137,-10.682306289672852,-10.31622314453125,-9.950140953063965,-9.584057807922363,-9.217975616455078,-8.851892471313477,-8.485810279846191,-8.11972713470459,-7.753644943237305,-7.387562274932861,-7.021479606628418,-6.655396938323975,-6.289314270019531,-5.923231601715088,-5.5571489334106445,-5.191066265106201,-4.824983596801758,-4.458901405334473,-4.092818737030029,-3.726736068725586,-3.3606534004211426,-2.994570732116699,-2.628488063812256,-2.2624056339263916,-1.8963229656219482,-1.5302402973175049,-1.164157748222351,-0.7980751395225525,-0.4319925308227539,-0.06590992212295532,0.30017268657684326,0.6662552952766418,1.0323379039764404,1.3984205722808838,1.7645031213760376,2.1305856704711914,2.4966683387756348],"_type":"histogram","values":[1,0,0,0,0,0,0,0,0,0,0,0,0,0,0,0,0,0,0,0,0,0,0,0,1,0,0,0,0,0,0,0,0,0,0,0,0,0,0,0,0,0,0,0,1,0,0,0,0,0,0,2,0,3,7,8,36,174,13,8,0,1,0,1]},"gradients/actor.latent_pi.2.bias":{"bins":[-0.13080981373786926,-0.1275142878293991,-0.12421874701976776,-0.12092322111129761,-0.11762768775224686,-0.1143321543931961,-0.11103662848472595,-0.1077410951256752,-0.10444556176662445,-0.1011500284075737,-0.09785449504852295,-0.0945589691400528,-0.09126343578100204,-0.0879679024219513,-0.08467237651348114,-0.08137684315443039,-0.07808130979537964,-0.07478577643632889,-0.07149024307727814,-0.06819471716880798,-0.06489918380975723,-0.06160365045070648,-0.05830812081694603,-0.05501259118318558,-0.05171705782413483,-0.048421524465084076,-0.045125994831323624,-0.04183046519756317,-0.03853493183851242,-0.03523939847946167,-0.03194386884570122,-0.028648337349295616,-0.025352798402309418,-0.022057266905903816,-0.018761735409498215,-0.015466203913092613,-0.012170672416687012,-0.00887514092028141,-0.005579609423875809,-0.002284077927470207,0.0010114535689353943,0.004306985065340996,0.007602516561746597,0.010898048058152199,0.0141935795545578,0.017489111050963402,0.020784642547369003,0.024080174043774605,0.027375705540180206,0.030671237036585808,0.03396676853299141,0.03726229816675186,0.04055783152580261,0.04385336488485336,0.047148894518613815,0.05044442415237427,0.05373995751142502,0.05703549087047577,0.06033102050423622,0.06362655013799667,0.06692208349704742,0.07021761685609818,0.07351315021514893,0.07680867612361908,0.08010420948266983],"_type":"histogram","values":[2,0,0,0,1,0,0,0,0,0,1,0,0,2,0,0,0,2,1,0,3,1,0,1,0,3,3,1,1,3,6,6,6,2,11,16,7,16,9,25,15,17,10,9,9,5,9,12,2,4,5,5,5,3,3,4,3,1,2,0,3,0,0,1]},"gradients/critic.qf1.4.bias":{"bins":[-2.149138927459717,-2.0777719020843506,-2.0064048767089844,-1.9350378513336182,-1.863670825958252,-1.7923038005828857,-1.7209367752075195,-1.6495697498321533,-1.578202724456787,-1.506835699081421,-1.4354686737060547,-1.3641016483306885,-1.2927346229553223,-1.221367597579956,-1.1500005722045898,-1.0786335468292236,-1.0072665214538574,-0.9358994960784912,-0.864532470703125,-0.7931654453277588,-0.7217984199523926,-0.6504313945770264,-0.5790643692016602,-0.507697343826294,-0.43633031845092773,-0.3649632930755615,-0.2935962677001953,-0.2222292423248291,-0.1508622169494629,-0.07949519157409668,-0.008128166198730469,0.06323885917663574,0.13460588455200195,0.20597290992736816,0.2773399353027344,0.3487069606781006,0.4200739860534668,0.491441011428833,0.5628080368041992,0.6341750621795654,0.7055420875549316,0.7769091129302979,0.8482761383056641,0.9196431636810303,0.9910101890563965,1.0623772144317627,1.133744239807129,1.2051112651824951,1.2764782905578613,1.3478453159332275,1.4192123413085938,1.49057936668396,1.5619463920593262,1.6333134174346924,1.7046804428100586,1.7760474681854248,1.847414493560791,1.9187815189361572,1.9901485443115234,2.0615155696868896,2.132882595062256,2.204249620437622,2.2756166458129883,2.3469836711883545,2.4183506965637207],"_type":"histogram","values":[1,0,0,0,0,1,3,3,1,3,2,2,3,4,2,3,1,3,3,3,3,5,3,8,5,6,9,12,17,30,79,10,8,4,2,2,1,4,2,1,0,3,1,0,1,0,0,0,0,0,0,0,0,0,1,0,0,0,0,0,0,0,0,1]},"train/ent_coef_loss":-0.4365886,"gradients/actor.latent_pi.6.weight":{"_type":"histogram","values":[1,1,0,1,0,0,0,0,0,0,0,1,2,3,1,5,2,6,8,12,16,23,26,41,65,85,176,286,436,971,2878,53176,4323,1354,667,352,187,134,91,46,55,26,20,14,10,11,5,5,5,0,0,2,2,1,1,0,0,0,2,0,0,0,0,1],"bins":[-0.45147180557250977,-0.43720677495002747,-0.4229417145252228,-0.4086766839027405,-0.3944116532802582,-0.3801465928554535,-0.3658815622329712,-0.3516165316104889,-0.3373515009880066,-0.3230864405632019,-0.3088214099407196,-0.2945563793182373,-0.2802913188934326,-0.2660262882709503,-0.251761257648468,-0.23749621212482452,-0.22323116660118103,-0.20896612107753754,-0.19470109045505524,-0.18043604493141174,-0.16617101430892944,-0.15190596878528595,-0.13764092326164246,-0.12337588518857956,-0.10911084711551666,-0.09484580904245377,-0.08058077096939087,-0.06631572544574738,-0.05205068737268448,-0.03778564929962158,-0.023520607501268387,-0.009255567565560341,0.005009472370147705,0.01927451230585575,0.0335395522415638,0.04780459403991699,0.06206963211297989,0.07633467018604279,0.09059971570968628,0.10486475378274918,0.11912979185581207,0.13339483737945557,0.14765986800193787,0.16192491352558136,0.17618995904922485,0.19045498967170715,0.20472003519535065,0.21898506581783295,0.23325011134147644,0.24751515686511993,0.2617802023887634,0.2760452330112457,0.290310263633728,0.3045753240585327,0.318840354681015,0.3331053853034973,0.347370445728302,0.3616354763507843,0.3759005069732666,0.3901655375957489,0.4044305980205536,0.4186956286430359,0.4329606592655182,0.4472257196903229,0.4614907503128052]},"gradients/critic.qf0.8.weight":{"bins":[-52.85498809814453,-52.02912902832031,-51.203269958496094,-50.377410888671875,-49.551551818847656,-48.72569274902344,-47.89983367919922,-47.073974609375,-46.24811553955078,-45.42225646972656,-44.596397399902344,-43.770538330078125,-42.944679260253906,-42.11882019042969,-41.29296112060547,-40.46710205078125,-39.64124298095703,-38.81538009643555,-37.98952102661133,-37.16366195678711,-36.33780288696289,-35.51194381713867,-34.68608474731445,-33.860225677490234,-33.034366607666016,-32.2085075378418,-31.382648468017578,-30.55678939819336,-29.73093032836914,-28.905071258544922,-28.079212188720703,-27.253353118896484,-26.427494049072266,-25.601634979248047,-24.775775909423828,-23.94991683959961,-23.12405776977539,-22.298198699951172,-21.472339630126953,-20.646480560302734,-19.820621490478516,-18.994760513305664,-18.168901443481445,-17.343042373657227,-16.517183303833008,-15.691324234008789,-14.86546516418457,-14.039606094360352,-13.213747024536133,-12.387887954711914,-11.562028884887695,-10.736169815063477,-9.910310745239258,-9.084450721740723,-8.258591651916504,-7.432732582092285,-6.606873512268066,-5.781014442443848,-4.955155372619629,-4.129295825958252,-3.303436756134033,-2.4775776863098145,-1.6517183780670166,-0.8258591890335083,0],"_type":"histogram","values":[1,0,0,0,0,0,0,0,0,0,0,1,1,1,3,4,1,7,4,2,5,5,2,3,4,2,2,2,5,1,1,2,2,2,0,3,0,2,6,5,2,2,2,2,8,4,7,0,2,3,2,0,0,1,1,1,1,0,0,3,12,13,5,106]},"train/ent_coef":0.22263697,"gradients/actor.log_std.weight":{"bins":[-0.5231872200965881,-0.5017579793930054,-0.4803287982940674,-0.458899587392807,-0.43747037649154663,-0.41604113578796387,-0.3946119248867035,-0.3731827139854431,-0.35175350308418274,-0.33032429218292236,-0.308895081281662,-0.2874658703804016,-0.26603662967681885,-0.24460743367671967,-0.2231782078742981,-0.20174899697303772,-0.18031978607177734,-0.15889057517051697,-0.1374613642692566,-0.11603213846683502,-0.09460292756557465,-0.07317371666431427,-0.0517444983124733,-0.030315283685922623,-0.008886069059371948,0.012543145567178726,0.0339723601937294,0.055401574820280075,0.07683078944683075,0.09826000034809113,0.1196892186999321,0.14111843705177307,0.16254758834838867,0.18397679924964905,0.20540601015090942,0.226835235953331,0.24826444685459137,0.26969367265701294,0.2911228835582733,0.3125520944595337,0.33398130536079407,0.35541051626205444,0.3768397271633148,0.3982689380645752,0.41969817876815796,0.44112738966941833,0.4625566005706787,0.4839858114719391,0.5054150223731995,0.5268442630767822,0.5482734441757202,0.569702684879303,0.591131865978241,0.6125611066818237,0.6339902877807617,0.6554195284843445,0.6768487691879272,0.6982779502868652,0.719707190990448,0.741136372089386,0.7625656127929688,0.7839947938919067,0.8054240345954895,0.8268532156944275,0.8482824563980103],"_type":"histogram","values":[1,0,2,1,2,3,0,1,2,2,6,4,5,2,6,10,15,7,20,26,38,56,138,303,972,159,81,52,24,24,9,17,9,9,4,4,5,3,4,4,3,2,1,1,0,1,0,2,0,0,1,4,0,0,0,0,1,1,0,0,0,0,0,1]},"gradients/actor.log_std.bias":{"_type":"histogram","values":[1,0,0,0,0,0,0,0,0,0,0,0,0,2,0,0,0,0,0,0,1,1,0,0,0,0,0,0,0,0,0,0,1,0,0,0,0,0,0,0,0,0,0,0,0,0,0,0,0,0,0,0,0,0,0,0,0,1,0,0,0,0,0,1],"bins":[-0.11006040126085281,-0.1058543473482132,-0.10164828598499298,-0.09744223207235336,-0.09323617815971375,-0.08903012424707413,-0.08482407033443451,-0.0806180089712143,-0.07641195505857468,-0.07220590114593506,-0.06799983978271484,-0.06379378587007523,-0.05958773195743561,-0.05538167804479599,-0.051175620406866074,-0.04696956276893616,-0.04276350885629654,-0.03855745494365692,-0.034351397305727005,-0.030145341530442238,-0.02593928575515747,-0.021733229979872704,-0.017527174204587936,-0.01332111842930317,-0.009115062654018402,-0.004909006878733635,-0.0007029511034488678,0.0035031046718358994,0.0077091604471206665,0.011915216222405434,0.0161212719976902,0.020327327772974968,0.024533390998840332,0.0287394467741251,0.032945502549409866,0.03715156018733978,0.0413576140999794,0.04556366801261902,0.049769725650548935,0.05397578328847885,0.05818183720111847,0.06238789111375809,0.0665939450263977,0.07080000638961792,0.07500606030225754,0.07921211421489716,0.08341817557811737,0.08762422949075699,0.0918302834033966,0.09603633731603622,0.10024239122867584,0.10444845259189606,0.10865450650453568,0.11286056041717529,0.11706662178039551,0.12127267569303513,0.12547872960567474,0.12968479096889496,0.13389083743095398,0.1380968987941742,0.1423029601573944,0.14650900661945343,0.15071506798267365,0.15492111444473267,0.15912717580795288]},"gradients/critic.qf1.6.weight":{"values":[1,1,0,0,0,2,3,2,3,4,1,3,9,37,41,41,55,170,580,1996,4665,55146,2017,377,168,76,48,24,16,10,5,9,4,6,3,2,2,1,3,2,0,0,0,1,0,1,0,0,0,0,0,0,0,0,0,0,0,0,0,0,0,0,0,1],"bins":[-9.590446472167969,-9.148597717285156,-8.706748962402344,-8.264900207519531,-7.823051929473877,-7.381203651428223,-6.93935489654541,-6.497506141662598,-6.055657386779785,-5.613809108734131,-5.171960353851318,-4.730111598968506,-4.288263320922852,-3.846414566040039,-3.4045660495758057,-2.962717294692993,-2.5208687782287598,-2.0790202617645264,-1.6371715068817139,-1.1953229904174805,-0.7534743547439575,-0.31162574887275696,0.1302228569984436,0.5720714330673218,1.0139200687408447,1.4557687044143677,1.8976173400878906,2.339465856552124,2.7813143730163574,3.22316312789917,3.6650116443634033,4.106860160827637,4.548708915710449,4.990557670593262,5.432405948638916,5.8742547035217285,6.316103458404541,6.757951736450195,7.199800491333008,7.64164924621582,8.083498001098633,8.525346755981445,8.967194557189941,9.409043312072754,9.850892066955566,10.292740821838379,10.734589576721191,11.176438331604004,11.6182861328125,12.060134887695312,12.501983642578125,12.943832397460938,13.38568115234375,13.827529907226562,14.269378662109375,14.711226463317871,15.153075218200684,15.594923973083496,16.036771774291992,16.478620529174805,16.920469284057617,17.36231803894043,17.804166793823242,18.246015548706055,18.687864303588867],"_type":"histogram"},"train/critic_loss":1165.3447,"gradients/critic.qf0.4.bias":{"bins":[-2.647745132446289,-2.586686849594116,-2.5256285667419434,-2.4645702838897705,-2.4035120010375977,-2.342453718185425,-2.281395435333252,-2.220337152481079,-2.1592788696289062,-2.0982205867767334,-2.0371623039245605,-1.9761041402816772,-1.9150458574295044,-1.8539875745773315,-1.7929292917251587,-1.7318710088729858,-1.670812726020813,-1.6097544431686401,-1.5486961603164673,-1.4876378774642944,-1.4265795946121216,-1.3655213117599487,-1.3044630289077759,-1.243404746055603,-1.1823465824127197,-1.1212882995605469,-1.060230016708374,-0.9991716742515564,-0.9381134510040283,-0.8770551681518555,-0.8159968852996826,-0.7549386024475098,-0.6938802003860474,-0.6328219175338745,-0.5717636346817017,-0.5107053518295288,-0.44964709877967834,-0.3885888159275055,-0.32753056287765503,-0.2664722800254822,-0.20541399717330933,-0.14435571432113647,-0.08329744637012482,-0.022239170968532562,0.03881910443305969,0.09987737983465195,0.1609356552362442,0.22199392318725586,0.2830522060394287,0.34411048889160156,0.4051687717437744,0.4662270247936249,0.5272853374481201,0.5883435606956482,0.649401843547821,0.7104601263999939,0.7715184092521667,0.8325766921043396,0.8936349749565125,0.9546932578086853,1.0157514810562134,1.0768097639083862,1.137868046760559,1.198926329612732,1.2599846124649048],"_type":"histogram","values":[1,0,0,0,0,0,0,0,0,0,2,0,0,1,1,1,1,3,5,2,0,2,1,1,0,0,1,1,1,2,4,2,5,1,3,3,4,2,6,3,10,14,21,99,15,7,3,3,3,6,2,0,2,2,0,4,0,2,2,0,1,0,0,1]},"gradients/actor.mu.weight":{"values":[1,0,0,0,1,0,1,1,1,1,0,1,0,1,0,2,0,2,0,2,2,2,3,2,1,3,6,7,10,9,14,15,20,41,74,176,1093,319,100,45,27,21,16,6,2,4,3,1,3,1,1,0,0,0,1,2,0,0,0,1,0,1,1,1],"bins":[-3.3473408222198486,-3.256411552429199,-3.16548228263855,-3.0745532512664795,-2.98362398147583,-2.8926947116851807,-2.8017654418945312,-2.710836172103882,-2.6199069023132324,-2.528977870941162,-2.4380486011505127,-2.3471193313598633,-2.256190061569214,-2.1652607917785645,-2.074331760406494,-1.9834024906158447,-1.8924732208251953,-1.801543951034546,-1.710614800453186,-1.6196855306625366,-1.5287563800811768,-1.4378271102905273,-1.346897840499878,-1.255968689918518,-1.1650394201278687,-1.0741101503372192,-0.9831809997558594,-0.89225172996521,-0.8013225197792053,-0.7103933095932007,-0.6194640398025513,-0.5285348296165466,-0.4376058578491211,-0.34667664766311646,-0.25574740767478943,-0.1648181825876236,-0.07388895750045776,0.01704026758670807,0.1079694926738739,0.19889871776103973,0.28982794284820557,0.3807571530342102,0.47168639302253723,0.5626156330108643,0.6535448431968689,0.7444740533828735,0.835403323173523,0.9263325333595276,1.0172617435455322,1.1081910133361816,1.1991201639175415,1.290049433708191,1.3809785842895508,1.4719078540802002,1.5628371238708496,1.6537662744522095,1.7446955442428589,1.8356248140335083,1.9265539646148682,2.0174832344055176,2.108412504196167,2.1993417739868164,2.2902708053588867,2.381200075149536,2.4721293449401855],"_type":"histogram"},"gradients/critic.qf0.0.bias":{"_type":"histogram","values":[1,0,0,0,0,0,0,0,0,1,0,0,0,0,0,0,0,0,0,0,0,0,1,0,0,0,0,1,0,0,0,0,0,0,0,0,0,1,0,0,1,0,1,0,3,2,0,1,0,4,3,1,4,3,4,13,84,103,17,4,1,0,1,1],"bins":[-26.718280792236328,-26.249244689941406,-25.780208587646484,-25.311172485351562,-24.84213638305664,-24.37310218811035,-23.90406608581543,-23.435029983520508,-22.965993881225586,-22.496957778930664,-22.027921676635742,-21.55888557434082,-21.0898494720459,-20.620813369750977,-20.151779174804688,-19.682743072509766,-19.213706970214844,-18.744670867919922,-18.275634765625,-17.806598663330078,-17.337562561035156,-16.868526458740234,-16.399490356445312,-15.930455207824707,-15.461419105529785,-14.992383003234863,-14.523347854614258,-14.054311752319336,-13.585275650024414,-13.116239547729492,-12.647204399108887,-12.178168296813965,-11.709132194519043,-11.240096092224121,-10.7710599899292,-10.302023887634277,-9.832988739013672,-9.36395263671875,-8.894916534423828,-8.425880432128906,-7.956844806671143,-7.487808704376221,-7.018773078918457,-6.549736976623535,-6.0807013511657715,-5.61166524887085,-5.142629623413086,-4.673593521118164,-4.204557418823242,-3.7355217933654785,-3.2664859294891357,-2.797450065612793,-2.328413963317871,-1.8593782186508179,-1.3903422355651855,-0.9213063716888428,-0.4522705078125,0.01676538586616516,0.4858012795448303,0.9548372030258179,1.4238730669021606,1.8929089307785034,2.3619449138641357,2.8309807777404785,3.3000166416168213]},"gradients/critic.qf0.2.weight":{"bins":[-67.4104995727539,-66.18740844726562,-64.96431732177734,-63.7412223815918,-62.51812744140625,-61.29503631591797,-60.07194137573242,-58.84885025024414,-57.625755310058594,-56.40266418457031,-55.17957305908203,-53.956478118896484,-52.7333869934082,-51.510292053222656,-50.287200927734375,-49.06410598754883,-47.84101486206055,-46.617923736572266,-45.39482879638672,-44.17173767089844,-42.94864273071289,-41.72555160522461,-40.50245666503906,-39.27936553955078,-38.0562744140625,-36.83317947387695,-35.61008834838867,-34.386993408203125,-33.163902282714844,-31.94080924987793,-30.717716217041016,-29.4946231842041,-28.271530151367188,-27.048437118530273,-25.82534408569336,-24.602251052856445,-23.37915802001953,-22.156064987182617,-20.932971954345703,-19.70987892150879,-18.486785888671875,-17.263694763183594,-16.04060173034668,-14.817508697509766,-13.594415664672852,-12.371322631835938,-11.148229598999023,-9.925137519836426,-8.702044486999512,-7.478951454162598,-6.255858898162842,-5.032766342163086,-3.809673309326172,-2.586580514907837,-1.363487720489502,-0.140394926071167,1.082697868347168,2.305790662765503,3.528883457183838,4.751976013183594,5.975069046020508,7.198162078857422,8.421255111694336,9.644347190856934,10.867440223693848],"_type":"histogram","values":[1,2,0,0,0,0,0,1,0,0,0,0,1,0,0,0,1,0,0,0,0,0,0,2,2,0,0,1,0,3,1,2,1,1,2,2,4,2,1,4,2,7,7,6,12,4,15,13,18,28,45,63,135,311,3856,60715,201,48,8,2,1,4,0,1]},"gradients/critic.qf1.8.weight":{"_type":"histogram","values":[2,2,2,1,3,2,1,1,3,1,1,3,3,3,4,0,4,0,3,3,1,3,2,4,3,1,0,3,0,3,6,4,1,2,1,2,4,2,2,1,1,0,3,2,0,2,0,1,2,1,0,0,0,3,8,8,10,2,3,1,3,2,6,111],"bins":[-49.55033493041992,-48.7761116027832,-48.001888275146484,-47.2276611328125,-46.45343780517578,-45.67921447753906,-44.904991149902344,-44.130767822265625,-43.356544494628906,-42.58231735229492,-41.8080940246582,-41.033870697021484,-40.259647369384766,-39.48542404174805,-38.71120071411133,-37.936973571777344,-37.162750244140625,-36.388526916503906,-35.61430358886719,-34.84008026123047,-34.06585693359375,-33.291629791259766,-32.51740646362305,-31.743183135986328,-30.96895980834961,-30.194734573364258,-29.42051124572754,-28.64628791809082,-27.87206268310547,-27.09783935546875,-26.32361602783203,-25.54939079284668,-24.77516746520996,-24.000944137573242,-23.22671890258789,-22.452495574951172,-21.678272247314453,-20.9040470123291,-20.129823684692383,-19.355600357055664,-18.581375122070312,-17.807151794433594,-17.032928466796875,-16.258703231811523,-15.484479904174805,-14.71025562286377,-13.936031341552734,-13.161808013916016,-12.38758373260498,-11.613359451293945,-10.839136123657227,-10.064911842346191,-9.290687561035156,-8.516464233398438,-7.742239952087402,-6.968015670776367,-6.19379186630249,-5.419568061828613,-4.645343780517578,-3.871119976043701,-3.096895933151245,-2.322671890258789,-1.5484479665756226,-0.7742239832878113,0]},"gradients/critic.qf0.6.bias":{"_type":"histogram","values":[1,0,0,0,0,0,0,0,0,0,0,0,0,0,2,1,0,1,0,0,5,19,31,25,20,7,2,1,0,0,88,10,8,16,10,5,0,0,1,0,1,0,0,0,0,0,0,0,0,0,0,0,0,0,0,0,0,0,0,0,0,0,0,2],"bins":[-0.3001023530960083,-0.290407657623291,-0.28071296215057373,-0.27101826667785645,-0.26132357120513916,-0.2516288757324219,-0.2419341802597046,-0.2322394847869873,-0.22254478931427002,-0.21285009384155273,-0.20315539836883545,-0.19346070289611816,-0.18376600742340088,-0.1740713119506836,-0.1643766164779663,-0.15468192100524902,-0.14498722553253174,-0.13529253005981445,-0.12559783458709717,-0.11590313911437988,-0.1062084436416626,-0.09651374816894531,-0.08681905269622803,-0.07712435722351074,-0.06742966175079346,-0.05773496627807617,-0.04804027080535889,-0.0383455753326416,-0.028650879859924316,-0.01895618438720703,-0.009261488914489746,0.00043320655822753906,0.010127931833267212,0.019822627305984497,0.029517322778701782,0.03921201825141907,0.04890671372413635,0.05860140919685364,0.06829610466957092,0.07799080014228821,0.0876854956150055,0.09738019108772278,0.10707488656044006,0.11676958203315735,0.12646427750587463,0.13615897297859192,0.1458536684513092,0.1555483639240265,0.16524305939674377,0.17493775486946106,0.18463245034217834,0.19432714581489563,0.20402184128761292,0.2137165367603302,0.22341123223304749,0.23310592770576477,0.24280062317848206,0.25249531865119934,0.2621900141239166,0.2718847095966339,0.2815794050693512,0.2912741005420685,0.30096879601478577,0.31066349148750305,0.32035818696022034]},"gradients/critic.qf1.8.bias":{"_type":"histogram","values":[1],"bins":[-0.5390625,-0.5390625]},"global_step":10000000,"_wandb":{"runtime":20288},"gradients/critic.qf1.6.bias":{"bins":[-0.23140347003936768,-0.2198844701051712,-0.20836545526981354,-0.19684645533561707,-0.1853274554014206,-0.17380844056606293,-0.16228944063186646,-0.15077044069766998,-0.1392514407634735,-0.12773242592811584,-0.11621342599391937,-0.1046944186091423,-0.09317541122436523,-0.08165641129016876,-0.0701374039053917,-0.05861840024590492,-0.04709939658641815,-0.03558039292693138,-0.02406138740479946,-0.012542382813990116,-0.0010233782231807709,0.010495626367628574,0.02201463095843792,0.03353363648056984,0.04505264014005661,0.05657164379954338,0.06809064745903015,0.07960965484380722,0.09112866222858429,0.10264766216278076,0.11416666954755783,0.1256856769323349,0.13720467686653137,0.14872367680072784,0.1602426916360855,0.17176169157028198,0.18328069150447845,0.19479970633983612,0.2063187062740326,0.21783770620822906,0.22935670614242554,0.2408757209777832,0.25239473581314087,0.26391372084617615,0.2754327356815338,0.2869517505168915,0.29847073554992676,0.3099897503852844,0.3215087652206421,0.33302775025367737,0.34454676508903503,0.3560657501220703,0.367584764957428,0.37910377979278564,0.3906227648258209,0.4021417796611786,0.41366079449653625,0.42517977952957153,0.4366987943649292,0.44821780920028687,0.45973679423332214,0.4712558090686798,0.4827748239040375,0.49429380893707275,0.5058128237724304],"_type":"histogram","values":[1,1,0,1,1,1,0,0,0,1,6,30,33,22,3,1,2,2,0,5,94,14,15,7,6,4,0,1,0,1,1,0,1,0,0,0,0,0,1,0,0,0,0,0,0,0,0,0,0,0,0,0,0,0,0,0,0,0,0,0,0,0,0,1]},"gradients/actor.latent_pi.6.bias":{"_type":"histogram","values":[1,0,0,0,0,0,0,0,0,0,0,0,0,1,0,0,0,2,0,0,0,0,1,0,3,1,0,1,4,3,4,9,12,23,21,88,21,10,12,10,9,2,5,2,2,3,0,0,0,1,0,1,0,1,0,0,1,0,1,0,0,0,0,1],"bins":[-0.06590829789638519,-0.06404570490121841,-0.06218310818076134,-0.06032051146030426,-0.05845791846513748,-0.056595321744680405,-0.054732728749513626,-0.05287013202905655,-0.05100753903388977,-0.049144942313432693,-0.047282345592975616,-0.04541975259780884,-0.04355715587735176,-0.04169456288218498,-0.039831966161727905,-0.03796937316656113,-0.03610677644610405,-0.03424417972564697,-0.032381586730480194,-0.030518991872668266,-0.02865639701485634,-0.02679380029439926,-0.024931205436587334,-0.023068610578775406,-0.021206015720963478,-0.01934342086315155,-0.017480826005339622,-0.01561823021620512,-0.013755635358393192,-0.011893040500581264,-0.010030444711446762,-0.008167849853634834,-0.0063052549958229065,-0.004442660138010979,-0.0025800648145377636,-0.0007174697238951921,0.0011451253667473793,0.0030077204573899508,0.004870315548032522,0.006732910871505737,0.008595505729317665,0.010458100587129593,0.01232069544494152,0.014183291234076023,0.016045887023210526,0.017908481881022453,0.01977107673883438,0.02163367159664631,0.023496266454458237,0.025358861312270164,0.027221456170082092,0.02908405102789402,0.030946645885705948,0.032809242606163025,0.0346718356013298,0.03653443232178688,0.03839702904224396,0.040259622037410736,0.04212221875786781,0.04398481175303459,0.04584740847349167,0.04771000146865845,0.049572598189115524,0.0514351911842823,0.05329778790473938]},"gradients/actor.latent_pi.4.weight":{"_type":"histogram","values":[1,1,0,1,2,1,4,4,8,4,8,9,14,8,18,24,37,47,66,91,105,148,223,357,579,883,1498,2631,5442,34535,9888,3714,1923,1140,682,427,296,217,149,99,69,56,32,27,22,9,8,9,3,5,5,0,1,3,0,1,0,0,0,1,0,0,0,1],"bins":[-0.2447536438703537,-0.23653395473957062,-0.22831425070762634,-0.22009456157684326,-0.21187487244606018,-0.2036551833152771,-0.19543549418449402,-0.18721579015254974,-0.17899610102176666,-0.17077641189098358,-0.1625567078590393,-0.15433701872825623,-0.14611732959747314,-0.13789764046669006,-0.12967795133590698,-0.12145824730396271,-0.11323855817317963,-0.10501886904239655,-0.09679917246103287,-0.08857947587966919,-0.08035978674888611,-0.07214009761810303,-0.06392040103673935,-0.05570070818066597,-0.04748101532459259,-0.03926132246851921,-0.03104162961244583,-0.022821936756372452,-0.014602243900299072,-0.006382551044225693,0.0018371418118476868,0.010056834667921066,0.018276512622833252,0.02649620547890663,0.03471589833498001,0.04293559119105339,0.05115528404712677,0.05937497690320015,0.06759466975927353,0.07581436634063721,0.08403405547142029,0.09225374460220337,0.10047344118356705,0.10869313776493073,0.1169128268957138,0.1251325160264969,0.13335222005844116,0.14157190918922424,0.14979159832000732,0.1580112874507904,0.1662309765815735,0.17445068061351776,0.18267036974430084,0.19089005887508392,0.1991097629070282,0.20732945203781128,0.21554914116859436,0.22376883029937744,0.23198851943016052,0.2402082234621048,0.24842791259288788,0.25664761662483215,0.26486730575561523,0.2730869948863983,0.2813066840171814]},"gradients/actor.latent_pi.4.bias":{"bins":[-0.0463155061006546,-0.04512372612953186,-0.04393194615840912,-0.04274016618728638,-0.041548386216163635,-0.040356606245040894,-0.03916482627391815,-0.03797304630279541,-0.03678126633167267,-0.035589490085840225,-0.034397710114717484,-0.03320593014359474,-0.032014150172472,-0.03082237020134926,-0.029630590230226517,-0.028438810259103775,-0.027247030287981033,-0.02605525031685829,-0.02486347034573555,-0.023671690374612808,-0.022479910403490067,-0.021288132295012474,-0.020096352323889732,-0.01890457235276699,-0.01771279238164425,-0.016521012410521507,-0.015329232439398766,-0.014137453399598598,-0.012945673428475857,-0.011753893457353115,-0.010562114417552948,-0.009370334446430206,-0.008178554475307465,-0.006986774504184723,-0.0057949949987232685,-0.004603215493261814,-0.0034114355221390724,-0.0022196557838469744,-0.0010278760455548763,0.00016390369273722172,0.0013556834310293198,0.002547463169321418,0.003739242907613516,0.00493102241307497,0.006122802384197712,0.007314582355320454,0.00850636139512062,0.009698141366243362,0.010889921337366104,0.012081701308488846,0.013273481279611588,0.014465260319411755,0.01565704122185707,0.016848819330334663,0.018040599301457405,0.019232379272580147,0.02042415924370289,0.02161593921482563,0.022807719185948372,0.023999499157071114,0.025191277265548706,0.026383057236671448,0.02757483720779419,0.02876661717891693,0.029958397150039673],"_type":"histogram","values":[1,0,0,0,1,0,0,0,1,1,2,0,3,2,1,1,0,2,5,1,2,1,2,1,2,3,1,2,3,7,7,7,2,8,6,9,8,10,30,14,11,14,9,3,8,9,6,2,6,0,6,5,2,2,1,6,8,1,1,2,1,2,3,2]},"gradients/actor.latent_pi.0.bias":{"_type":"histogram","values":[1,0,0,0,0,0,0,0,0,0,1,0,0,1,0,1,0,0,0,0,0,0,0,1,1,0,0,0,2,1,1,2,4,0,4,4,20,17,29,27,28,22,31,14,13,9,9,4,1,2,1,2,0,1,1,0,0,0,0,0,0,0,0,1],"bins":[-0.7553184032440186,-0.736445426940918,-0.7175724506378174,-0.6986994743347168,-0.6798264980316162,-0.6609534621238708,-0.6420804858207703,-0.6232075095176697,-0.6043345332145691,-0.5854615569114685,-0.5665885806083679,-0.5477156043052673,-0.528842568397522,-0.5099695920944214,-0.4910966157913208,-0.4722236394882202,-0.45335066318511963,-0.43447768688201904,-0.41560471057891846,-0.3967317044734955,-0.3778587281703949,-0.3589857518672943,-0.34011274576187134,-0.32123976945877075,-0.30236679315567017,-0.2834938168525696,-0.264620840549469,-0.24574783444404602,-0.22687485814094543,-0.20800188183784485,-0.18912889063358307,-0.1702558994293213,-0.1513829529285431,-0.1325099766254425,-0.11363698542118073,-0.09476400166749954,-0.07589101791381836,-0.057018034160137177,-0.038145050406455994,-0.01927206665277481,-0.00039908289909362793,0.018473900854587555,0.03734688460826874,0.05621986836194992,0.0750928521156311,0.09396583586931229,0.11283881962299347,0.13171181082725525,0.15058478713035583,0.16945776343345642,0.1883307546377182,0.20720374584197998,0.22607672214508057,0.24494969844818115,0.26382267475128174,0.2826956808567047,0.3015686571598053,0.3204416334629059,0.33931463956832886,0.35818761587142944,0.37706059217453003,0.3959335684776306,0.4148065447807312,0.4336795508861542,0.45255252718925476]},"gradients/critic.qf1.0.weight":{"_type":"histogram","values":[1,0,0,0,1,0,0,1,0,0,1,1,0,2,1,2,1,5,3,1,6,6,1,5,8,10,6,10,9,24,31,32,55,79,153,524,26169,1723,259,109,47,41,26,28,12,12,6,2,3,2,0,1,5,2,1,1,1,5,2,0,0,1,1,2],"bins":[-26.519363403320312,-25.798320770263672,-25.0772762298584,-24.356231689453125,-23.635189056396484,-22.914146423339844,-22.19310188293457,-21.472057342529297,-20.751014709472656,-20.029972076416016,-19.308927536010742,-18.58788299560547,-17.866840362548828,-17.145797729492188,-16.424753189086914,-15.703709602355957,-14.982666015625,-14.261622428894043,-13.540578842163086,-12.819535255432129,-12.098491668701172,-11.377448081970215,-10.656404495239258,-9.9353609085083,-9.214317321777344,-8.493273735046387,-7.77223014831543,-7.051186561584473,-6.330142974853516,-5.609099388122559,-4.888055801391602,-4.1670122146606445,-3.4459686279296875,-2.7249250411987305,-2.0038814544677734,-1.2828378677368164,-0.5617942810058594,0.15924930572509766,0.8802928924560547,1.6013364791870117,2.3223800659179688,3.043423652648926,3.764467239379883,4.48551082611084,5.206554412841797,5.927597999572754,6.648641586303711,7.369685173034668,8.090728759765625,8.811772346496582,9.532815933227539,10.253859519958496,10.974903106689453,11.69594669342041,12.416990280151367,13.138033866882324,13.859077453613281,14.580121040344238,15.301164627075195,16.02220916748047,16.74325180053711,17.46429443359375,18.185338973999023,18.906383514404297,19.627426147460938]},"_step":10624,"gradients/critic.qf0.0.weight":{"_type":"histogram","values":[1,0,0,0,0,0,0,0,0,0,0,0,0,0,1,0,0,1,1,1,1,1,1,2,1,1,5,3,1,6,4,4,13,12,12,18,35,55,94,227,1434,26871,360,130,63,22,15,8,11,5,6,0,4,1,3,2,1,0,1,0,0,0,1,1],"bins":[-42.852874755859375,-41.81337356567383,-40.77387237548828,-39.73436737060547,-38.69486618041992,-37.655364990234375,-36.61586380004883,-35.57636260986328,-34.53685760498047,-33.49735641479492,-32.457855224609375,-31.418354034423828,-30.37885284423828,-29.3393497467041,-28.299848556518555,-27.260345458984375,-26.220844268798828,-25.18134307861328,-24.1418399810791,-23.102338790893555,-22.062835693359375,-21.023334503173828,-19.98383331298828,-18.9443302154541,-17.904829025268555,-16.865327835083008,-15.825824737548828,-14.786323547363281,-13.746821403503418,-12.707319259643555,-11.667818069458008,-10.628315925598145,-9.588809967041016,-8.549307823181152,-7.509806156158447,-6.470304489135742,-5.430802345275879,-4.391300201416016,-3.3517985343933105,-2.3122966289520264,-1.2727947235107422,-0.233292818069458,0.8062090873718262,1.8457109928131104,2.8852128982543945,3.9247148036956787,4.964216709136963,6.003718376159668,7.043220520019531,8.082722663879395,9.122224807739258,10.161725997924805,11.201228141784668,12.240730285644531,13.280231475830078,14.319733619689941,15.359235763549805,16.39873695373535,17.43824005126953,18.477741241455078,19.517242431640625,20.556745529174805,21.59624671936035,22.63574981689453,23.675251007080078]},"_timestamp":1.7634834542800162e+09,"rollout/ep_len_mean":1000,"time/fps":492,"gradients/critic.qf1.2.bias":{"values":[1,0,0,0,0,0,0,0,0,0,0,0,0,0,0,0,0,0,0,0,0,0,0,0,0,0,0,0,0,0,0,0,1,0,0,0,0,0,1,0,0,0,0,0,0,0,0,0,0,0,0,0,0,2,2,3,4,7,19,181,20,7,5,3],"bins":[-21.46528434753418,-21.10476303100586,-20.744239807128906,-20.383718490600586,-20.023195266723633,-19.662673950195312,-19.30215072631836,-18.94162940979004,-18.58110809326172,-18.220584869384766,-17.860063552856445,-17.499540328979492,-17.139019012451172,-16.77849578857422,-16.4179744720459,-16.057451248168945,-15.696929931640625,-15.336407661437988,-14.975885391235352,-14.615363121032715,-14.254840850830078,-13.894319534301758,-13.533797264099121,-13.173274993896484,-12.812752723693848,-12.452230453491211,-12.091708183288574,-11.731185913085938,-11.370664596557617,-11.01014232635498,-10.649620056152344,-10.289097785949707,-9.928576469421387,-9.56805419921875,-9.207531929016113,-8.847009658813477,-8.48648738861084,-8.125965118408203,-7.765443325042725,-7.404921054840088,-7.044399261474609,-6.683876991271973,-6.323354721069336,-5.962832450866699,-5.6023101806640625,-5.241788387298584,-4.881266117095947,-4.5207438468933105,-4.160222053527832,-3.7996997833251953,-3.4391775131225586,-3.078655242919922,-2.7181332111358643,-2.3576111793518066,-1.99708890914917,-1.6365667581558228,-1.2760446071624756,-0.9155224561691284,-0.5550003051757812,-0.19447815418243408,0.16604399681091309,0.5265661478042603,0.8870882987976074,1.2476104497909546,1.6081326007843018],"_type":"histogram"},"gradients/critic.qf1.4.weight":{"_type":"histogram","values":[1,0,0,0,0,1,1,4,3,2,2,2,6,2,2,2,2,5,10,12,18,31,34,20,57,83,193,463,1043,3641,58875,683,165,75,42,19,11,5,4,2,3,3,2,2,1,1,1,0,0,0,0,0,0,0,1,0,0,0,0,0,0,0,0,1],"bins":[-30.641910552978516,-29.63129997253418,-28.620689392089844,-27.610078811645508,-26.599468231201172,-25.588855743408203,-24.578245162963867,-23.56763458251953,-22.557024002075195,-21.54641342163086,-20.535802841186523,-19.525192260742188,-18.51457977294922,-17.503969192504883,-16.493358612060547,-15.482748031616211,-14.472137451171875,-13.461526870727539,-12.450916290283203,-11.44030475616455,-10.429694175720215,-9.419083595275879,-8.408472061157227,-7.397861480712891,-6.387250900268555,-5.376640319824219,-4.366029262542725,-3.3554184436798096,-2.3448076248168945,-1.3341968059539795,-0.32358598709106445,0.6870248317718506,1.6976318359375,2.708242654800415,3.71885347366333,4.729464530944824,5.74007511138916,6.750685691833496,7.76129674911499,8.771907806396484,9.78251838684082,10.793128967285156,11.803739547729492,12.814351081848145,13.82496166229248,14.835572242736816,15.846183776855469,16.856794357299805,17.86740493774414,18.878015518188477,19.888626098632812,20.89923667907715,21.909847259521484,22.920459747314453,23.93107032775879,24.941680908203125,25.95229148864746,26.962902069091797,27.973512649536133,28.98412322998047,29.994735717773438,31.005346298217773,32.01595687866211,33.02656555175781,34.03717803955078]}}